{
  "version": "1.0",
  "ebm": {
    "outputs": [
      {
        "task": "regression",
        "min_target": 64.5,
        "max_target": 107.0,
        "link": "identity",
        "link_param": "nan"
      }
    ],
    "intercept": [
      84.33802502149949
    ],
    "bagged_intercept": [
      84.33798526265494,
      84.33824241118063,
      84.33794924173235,
      84.33812136387672,
      84.33794251173946,
      84.33811491827856,
      84.337935059694,
      84.33812794206534,
      84.33798216617042,
      84.33794859728826,
      84.33813005249051,
      84.3379378263523,
      84.33798505983069,
      84.33794788763875
    ],
    "bag_weights": [
      850.0,
      850.0,
      850.0,
      850.0,
      850.0,
      850.0,
      850.0,
      850.0,
      850.0,
      850.0,
      850.0,
      850.0,
      850.0,
      850.0
    ],
    "best_iteration": [
      [
        75000,
        75000,
        75000,
        75000,
        75000,
        75000,
        75000,
        75000,
        75000,
        75000,
        75000,
        75000,
        75000,
        75000
      ],
      [
        75000,
        75000,
        75000,
        75000,
        75000,
        75000,
        75000,
        75000,
        75000,
        75000,
        75000,
        75000,
        75000,
        75000
      ]
    ],
    "implementation": "python",
    "implementation_params": {
      "feature_names": null,
      "feature_types": null,
      "max_bins": 1024,
      "max_interaction_bins": 64,
      "interactions": 0.9,
      "exclude": null,
      "validation_size": 0.15,
      "outer_bags": 14,
      "inner_bags": 0,
      "learning_rate": 0.04,
      "greedy_ratio": 10.0,
      "smoothing_rounds": 500,
      "interaction_smoothing_rounds": 100,
      "max_rounds": 25000,
      "early_stopping_rounds": 100,
      "early_stopping_tolerance": 1e-05,
      "min_samples_leaf": 4,
      "min_hessian": 0.0,
      "reg_alpha": 0.0,
      "reg_lambda": 0.0,
      "max_delta_step": 0.0,
      "max_leaves": 2,
      "objective": "rmse",
      "n_jobs": -2,
      "random_state": 42
    },
    "features": [
      {
        "name": "Cigarettes per Day",
        "type": "continuous",
        "num_unique_vals": 21,
        "cuts": [
          [
            0.5,
            1.5,
            2.5,
            3.5,
            4.5,
            5.5,
            6.5,
            7.5,
            8.5,
            9.5,
            10.5,
            11.5,
            12.5,
            13.5,
            14.5,
            15.5,
            16.5,
            17.5,
            18.5,
            19.5
          ]
        ],
        "min": 0.0,
        "max": 20.0,
        "histogram_weights": [
          0.0,
          104.0,
          92.0,
          52.0,
          95.0,
          100.0,
          41.0,
          96.0,
          94.0,
          63.0,
          87.0,
          94.0,
          82.0,
          0.0
        ]
      },
      {
        "name": "Age",
        "type": "continuous",
        "num_unique_vals": 60,
        "cuts": [
          [
            20.5,
            21.5,
            22.5,
            23.5,
            24.5,
            25.5,
            26.5,
            27.5,
            28.5,
            29.5,
            30.5,
            31.5,
            32.5,
            33.5,
            34.5,
            35.5,
            36.5,
            37.5,
            38.5,
            39.5,
            40.5,
            41.5,
            42.5,
            43.5,
            44.5,
            45.5,
            46.5,
            47.5,
            48.5,
            49.5,
            50.5,
            51.5,
            52.5,
            53.5,
            54.5,
            55.5,
            56.5,
            57.5,
            58.5,
            59.5,
            60.5,
            61.5,
            62.5,
            63.5,
            64.5,
            65.5,
            66.5,
            67.5,
            68.5,
            69.5,
            70.5,
            71.5,
            72.5,
            73.5,
            74.5,
            75.5,
            76.5,
            77.5,
            78.5
          ]
        ],
        "min": 20.0,
        "max": 79.0,
        "histogram_weights": [
          0.0,
          86.0,
          72.0,
          71.0,
          76.0,
          90.0,
          89.0,
          95.0,
          85.0,
          73.0,
          82.0,
          91.0,
          90.0,
          0.0
        ]
      },
      {
        "name": "Diet Quality",
        "type": "nominal",
        "num_unique_vals": 3,
        "categories": [
          [
            "Average",
            "Excellent",
            "Poor"
          ]
        ]
      }
    ],
    "terms": [
      {
        "term_features": [
          "Cigarettes per Day"
        ],
        "scores": [
          0.0,
          -9.791725416887118,
          -8.789415332077079,
          -7.791846575209369,
          -6.788665111940516,
          -5.792833120079114,
          -4.790111276950809,
          -3.790723157006239,
          -2.790147758702141,
          -1.791445176772316,
          -0.7937224742759837,
          0.2108270352580762,
          1.2089164827963108,
          2.208397616055323,
          3.211152373935538,
          4.207994738939092,
          5.208103706298607,
          6.20715089104136,
          7.211005731644712,
          8.209048155387858,
          9.207989232671853,
          10.208663015603479,
          0.0
        ],
        "standard_deviations": [
          0.0,
          0.003264358569087425,
          0.004004821174492985,
          0.005505220402477165,
          0.005858494357275262,
          0.005034556464459853,
          0.00413525479500595,
          0.006465557059575456,
          0.005637687633235538,
          0.005358039900455411,
          0.006163232400113721,
          0.006603226421068671,
          0.008245595775092797,
          0.005360743742959146,
          0.0058936871026392685,
          0.004473583991905304,
          0.01093564107137585,
          0.0045381515384033165,
          0.004993413810856646,
          0.0033689215195066304,
          0.0031724773826569495,
          0.0038934380980126166,
          0.0
        ],
        "bagged_scores": [
          [
            0.0,
            -9.79330138574528,
            -8.790450057660784,
            -7.786523955823739,
            -6.797656754518204,
            -5.792716792985402,
            -4.7837477154762595,
            -3.7974509748048604,
            -2.787531199459572,
            -1.7912545905446287,
            -0.7945886666343576,
            0.20359868250115198,
            1.2203511648495002,
            2.2011058874288807,
            3.21590661357412,
            4.204651507649242,
            5.2235291613027215,
            6.204484673449478,
            7.213880331824278,
            8.206622611999464,
            9.209209831360738,
            10.207182314817189,
            0.0
          ],
          [
            0.0,
            -9.79806559323993,
            -8.794856253770824,
            -7.783413123827053,
            -6.791791877780106,
            -5.801125441287972,
            -4.785009990219166,
            -3.7937135616024946,
            -2.7804671077660608,
            -1.7969798513019697,
            -0.7797671133837873,
            0.19504879092428595,
            1.2159149513445904,
            2.2024548816224048,
            3.211702483779515,
            4.215991021907424,
            5.192283739768161,
            6.217644802092064,
            7.206723116813908,
            8.210928223231303,
            9.20886157224059,
            10.205204020045233,
            0.0
          ],
          [
            0.0,
            -9.786554098054904,
            -8.796944714777744,
            -7.788844478399916,
            -6.784961528444924,
            -5.7971880393401705,
            -4.788959000303066,
            -3.786270822018345,
            -2.787283134942662,
            -1.790952321195519,
            -0.7977301340543654,
            0.21524212633649853,
            1.198181011910627,
            2.207701058753411,
            3.215461622198724,
            4.2044505772016585,
            5.218367022110403,
            6.204493586807633,
            7.21164283526549,
            8.204315539785096,
            9.216686779708429,
            10.205248206229232,
            0.0
          ],
          [
            0.0,
            -9.792381205211107,
            -8.787064299372375,
            -7.79740770175421,
            -6.7844099719200806,
            -5.795180954329279,
            -4.785630341733864,
            -3.80336342908339,
            -2.7860870342702135,
            -1.7906636114675258,
            -0.7996041934350977,
            0.21651977300304281,
            1.2109183967514667,
            2.2021818030322216,
            3.2193658652218815,
            4.2023618123041295,
            5.214337586104623,
            6.207689594506892,
            7.204910383915841,
            8.212841016083342,
            9.207577186099702,
            10.213489097370175,
            0.0
          ],
          [
            0.0,
            -9.790563983731996,
            -8.786795343065048,
            -7.7925100593573156,
            -6.798980157271341,
            -5.783908509161673,
            -4.793502215174691,
            -3.789592509326077,
            -2.791291489847964,
            -1.7952712969147306,
            -0.789850643106,
            0.21466729680851415,
            1.2032428817652807,
            2.2135311137585347,
            3.2038305194506442,
            4.212197993595687,
            5.208041753688477,
            6.202881138629401,
            7.211714895603322,
            8.209806610067112,
            9.20528362591378,
            10.213310545399423,
            0.0
          ],
          [
            0.0,
            -9.791761244255209,
            -8.789493048741669,
            -7.795662355040591,
            -6.7867171266549455,
            -5.790748230539464,
            -4.794392924749545,
            -3.7827170611535657,
            -2.790933764793813,
            -1.7925173096081615,
            -0.7993550911140552,
            0.21604002031715197,
            1.2086332845023797,
            2.2055287466842834,
            3.216305570329922,
            4.204305766397333,
            5.216533696732121,
            6.204095638420412,
            7.214069360425739,
            8.208184821218502,
            9.203903049145055,
            10.211092731812336,
            0.0
          ],
          [
            0.0,
            -9.79382581068316,
            -8.787004376457453,
            -7.798532317964256,
            -6.785477217479453,
            -5.795768260275501,
            -4.792483990924236,
            -3.785874160320528,
            -2.7897665734068084,
            -1.7994626040025032,
            -0.7912508760284211,
            0.21553384503224038,
            1.1939878845067042,
            2.2172024595931177,
            3.2122008759930374,
            4.211929415931007,
            5.207959545009562,
            6.203775880122652,
            7.21794160328238,
            8.205469130788881,
            9.209461140918894,
            10.21204227406636,
            0.0
          ],
          [
            0.0,
            -9.792288691672457,
            -8.783832283866822,
            -7.8000367689203465,
            -6.779818207659208,
            -5.799139213878444,
            -4.783783762043107,
            -3.7924677596889396,
            -2.7986962720626423,
            -1.7816727531956573,
            -0.7984527520967823,
            0.2142777110736347,
            1.2033921324767967,
            2.2166392146502005,
            3.199592992817834,
            4.214391879249529,
            5.191908436634289,
            6.21220637474168,
            7.2033833117053625,
            8.215692971754795,
            9.206154875438,
            10.21230944684162,
            0.0
          ],
          [
            0.0,
            -9.795732628441616,
            -8.783810351522916,
            -7.792076002580895,
            -6.786200019198631,
            -5.789067088526917,
            -4.796034856820636,
            -3.7919242272156595,
            -2.7856753157397343,
            -1.790303965199513,
            -0.7912799131882728,
            0.20237796299414512,
            1.219888329750784,
            2.203113584485653,
            3.217948905358906,
            4.2060278627268275,
            5.1934907163459485,
            6.205608435388243,
            7.214391967637859,
            8.209300872179561,
            9.20762354303372,
            10.205426838373235,
            0.0
          ],
          [
            0.0,
            -9.79235913170535,
            -8.784493351437597,
            -7.797275860226559,
            -6.782997746205098,
            -5.795281390940492,
            -4.789162921857077,
            -3.7858052001501292,
            -2.801929663796898,
            -1.7819480619787988,
            -0.7998423107558139,
            0.21649167335823094,
            1.2023239920605064,
            2.2148056348535547,
            3.2084480851833597,
            4.203571904252907,
            5.222138770759731,
            6.203883901953528,
            7.218112959889499,
            8.20556598444033,
            9.208858175093152,
            10.205528662354201,
            0.0
          ],
          [
            0.0,
            -9.785952001321991,
            -8.79003448337086,
            -7.795571901316329,
            -6.781696744012944,
            -5.797040375121039,
            -4.791219217779048,
            -3.7779748547804815,
            -2.7984046823275506,
            -1.783996946201718,
            -0.802246366381798,
            0.2105311983432756,
            1.22157398690916,
            2.209509553265274,
            3.2083015489747915,
            4.203611446601862,
            5.220448853831151,
            6.201137307553253,
            7.214674975748508,
            8.204159219499438,
            9.210273911623474,
            10.200550023586452,
            0.0
          ],
          [
            0.0,
            -9.793013195525276,
            -8.79132460942752,
            -7.783662983001552,
            -6.7927400026924225,
            -5.789232540393666,
            -4.796236335111615,
            -3.789670071872962,
            -2.7870179897505913,
            -1.797403910685233,
            -0.7930124844786803,
            0.2145804434832499,
            1.208229528938329,
            2.2069904958426108,
            3.21536877297077,
            4.206985431057767,
            5.198997682474335,
            6.213335462822663,
            7.2029800261232495,
            8.21272346380465,
            9.203224994450046,
            10.211898729448393,
            0.0
          ],
          [
            0.0,
            -9.791279263316394,
            -8.79136403342456,
            -7.788574868761064,
            -6.793388013503858,
            -5.78750199566398,
            -4.791227869976854,
            -3.7966112180928846,
            -2.7874212126809326,
            -1.7942708666988345,
            -0.7905735464837562,
            0.21339777506809554,
            1.2044799857877777,
            2.211754196094091,
            3.209512297638053,
            4.208030189109241,
            5.204184392576945,
            6.210246042743993,
            7.206208768270887,
            8.210983626340084,
            9.206004602908,
            10.211653139687353,
            0.0
          ],
          [
            0.0,
            -9.787077603514987,
            -8.794347442182957,
            -7.7857596759573475,
            -6.794476199826011,
            -5.7857648486636,
            -4.790166735142179,
            -3.7966883479770317,
            -2.7895631809845263,
            -1.7935343858176296,
            -0.7845605487225846,
            0.20327119436954888,
            1.2137132275944502,
            2.205047994710281,
            3.2021870816059668,
            4.213419537162665,
            5.201230530842047,
            6.208629635347165,
            7.213445706519643,
            8.210080084237418,
            9.208725969472368,
            10.206346188417534,
            0.0
          ]
        ],
        "bin_weights": [
          0.0,
          46.0,
          58.0,
          49.0,
          43.0,
          52.0,
          52.0,
          43.0,
          58.0,
          42.0,
          41.0,
          51.0,
          45.0,
          48.0,
          46.0,
          63.0,
          28.0,
          59.0,
          46.0,
          48.0,
          42.0,
          40.0,
          0.0
        ]
      },
      {
        "term_features": [
          "Age"
        ],
        "scores": [
          0.0,
          9.060801347565292,
          8.757664494535403,
          8.461635866505985,
          8.157498847140099,
          7.85957821789905,
          7.563302765449668,
          7.255167794562825,
          6.957557232479426,
          6.661194386566483,
          6.3645454604121685,
          6.056983244195482,
          5.75777074155422,
          5.465826671129196,
          5.160352070489792,
          4.85396150959873,
          4.5629057425053325,
          4.253798389784265,
          3.9643618223911354,
          3.6629926166592495,
          3.3547790863904203,
          3.0613929913259144,
          2.75924913252194,
          2.461099874749948,
          2.159531994605526,
          1.8615194022949118,
          1.555252755596523,
          1.26180836467681,
          0.9638048003364871,
          0.6609320072043189,
          0.3562995588818994,
          0.06114333683555425,
          -0.23944092537111544,
          -0.5409424602585557,
          -0.8421652028731711,
          -1.1376509242904205,
          -1.4415162979700502,
          -1.742217196183476,
          -2.0346683761907487,
          -2.3399435315921306,
          -2.642432953007067,
          -2.9424213966691593,
          -3.2380854375361228,
          -3.531929558363616,
          -3.8423113271038822,
          -4.14170512067012,
          -4.426897245546121,
          -4.746039741428911,
          -5.03498291263345,
          -5.34106727366431,
          -5.643943992165509,
          -5.940558595630321,
          -6.235850594716678,
          -6.541066593849276,
          -6.838452102693512,
          -7.140834336280573,
          -7.438839726063414,
          -7.743230903676237,
          -8.038126603871552,
          -8.344735096525863,
          -8.63947509058567,
          0.0
        ],
        "standard_deviations": [
          0.0,
          0.0020981071778440564,
          0.004021799196431027,
          0.006811956142461655,
          0.009824635433701347,
          0.007038725781505984,
          0.010625360250495297,
          0.011147689402075504,
          0.007548266830658434,
          0.007824960751722116,
          0.014031900914287902,
          0.015241427604286494,
          0.008915983372154329,
          0.01077488869335315,
          0.01286151641893317,
          0.019883950931421653,
          0.010732946272534615,
          0.01255493498010531,
          0.012503638172710389,
          0.014322145248077622,
          0.013411035413563734,
          0.016368292825280423,
          0.012694031132187273,
          0.009154991030419364,
          0.012503330935421676,
          0.009806631005269798,
          0.008814406195533175,
          0.014849675470744408,
          0.009028368729172702,
          0.013848681787491803,
          0.01616133013387222,
          0.016394825630845662,
          0.010315814768224848,
          0.009251971277502071,
          0.02399327554224098,
          0.00817955106620849,
          0.012460768175740052,
          0.011537964747944869,
          0.024971647357908442,
          0.011981196346421504,
          0.012535056447805903,
          0.016510803841635936,
          0.01442666870532322,
          0.02671161387821135,
          0.010720049862095373,
          0.009996108426584174,
          0.019643954766814863,
          0.0109349745709692,
          0.009058478155437658,
          0.008908166372150667,
          0.009625553787201887,
          0.009993700009545256,
          0.008030191006126028,
          0.007404474548009865,
          0.011243395465775487,
          0.009090449990401863,
          0.016005098187858377,
          0.007653080504345747,
          0.003213984288887808,
          0.00700694278123061,
          0.0019416834757436236,
          0.0
        ],
        "bagged_scores": [
          [
            0.0,
            9.056873729397545,
            8.758742756054936,
            8.460747569627188,
            8.169566584324805,
            7.849671710109348,
            7.572404067432352,
            7.238258095839932,
            6.956037615214328,
            6.672414817752653,
            6.348281327495272,
            6.0553704216184485,
            5.768325901039283,
            5.459316599415331,
            5.1594129702079385,
            4.839267349382432,
            4.574945272369405,
            4.2583925996652425,
            3.935964976501822,
            3.67691855930061,
            3.3604842553850034,
            3.0399571020345633,
            2.7747641798788756,
            2.4454332184587173,
            2.158239993662992,
            1.8580967759789644,
            1.5604162294761785,
            1.2682475479818294,
            0.9584865648605536,
            0.6794177695340231,
            0.3630402781471922,
            0.035302420185068684,
            -0.22659870472103094,
            -0.5385254473945267,
            -0.8659598553395469,
            -1.1310657353368363,
            -1.4383788906620332,
            -1.74100786908717,
            -2.0671653680751128,
            -2.3358175442144464,
            -2.6381424738372914,
            -2.931690359797159,
            -3.255529603800017,
            -3.5373339514266746,
            -3.8382607504430197,
            -4.13719104524457,
            -4.415497317053706,
            -4.75618168597029,
            -5.024704816072145,
            -5.339749553416009,
            -5.645069802066594,
            -5.949208966753165,
            -6.238776355495144,
            -6.539700818830546,
            -6.828664535459573,
            -7.151156736819139,
            -7.422644867112247,
            -7.750322732425371,
            -8.040701553495396,
            -8.33337016425515,
            -8.641688822741937,
            0.0
          ],
          [
            0.0,
            9.062696518216118,
            8.752227453440245,
            8.473005959176472,
            8.147476945203653,
            7.869372003165449,
            7.543258981256745,
            7.2580843763459235,
            6.971549027177883,
            6.658662461314673,
            6.335046247587503,
            6.083400008650802,
            5.7453384055264785,
            5.478874291340379,
            5.160321861059348,
            4.858956694547398,
            4.538917814092702,
            4.258037791586812,
            3.9600245902749585,
            3.6847642453978438,
            3.3496828620639967,
            3.0400960189449187,
            2.7592938063674417,
            2.4760570150668144,
            2.1436981000869544,
            1.8823905721179663,
            1.5415768678774064,
            1.2585827781637668,
            0.9763438777765003,
            0.6613907264657897,
            0.33102815347339387,
            0.08900789009975085,
            -0.24245615932206732,
            -0.554850925496492,
            -0.8401237036346636,
            -1.1228139720060426,
            -1.4576431703590593,
            -1.7216990753775256,
            -2.076145311820696,
            -2.322693252956679,
            -2.6430528941073206,
            -2.969314391042129,
            -3.2101723607442842,
            -3.585243516619901,
            -3.8452340823950344,
            -4.138195957861662,
            -4.389408550316023,
            -4.739063420883873,
            -5.039035869231462,
            -5.354956388401515,
            -5.6416403428594,
            -5.923115818477854,
            -6.2476370093708695,
            -6.535150936065378,
            -6.853479870113734,
            -7.139835120642704,
            -7.409623511776779,
            -7.754380431888752,
            -8.040180237973804,
            -8.332212759064575,
            -8.642612568012723,
            0.0
          ],
          [
            0.0,
            9.062747985243359,
            8.761556918071566,
            8.451480933525449,
            8.158079159297348,
            7.870936938120035,
            7.543868870964456,
            7.259105698892579,
            6.959950190201408,
            6.6598073443703605,
            6.376396205005282,
            6.0577169386268785,
            5.743681163140284,
            5.474141373826594,
            5.140757263076512,
            4.885438725155549,
            4.546156094982468,
            4.261713278520585,
            3.9840941447347227,
            3.659619456765629,
            3.3375601105444375,
            3.0746407333179455,
            2.7541619203890093,
            2.4576908789656535,
            2.1756429290242387,
            1.8599086046114586,
            1.5607543960382628,
            1.2389023388447526,
            0.9605551860177961,
            0.6790377470783966,
            0.3617334990529315,
            0.061350612134233984,
            -0.25514195510325877,
            -0.5281212195156435,
            -0.8398865660287633,
            -1.1513067511501411,
            -1.4249854311574843,
            -1.7552318447966506,
            -2.0380937354731685,
            -2.325548519435724,
            -2.6619263144591017,
            -2.934336636869144,
            -3.2469580504039506,
            -3.539994420602227,
            -3.83730252927694,
            -4.124189452157324,
            -4.443048189145497,
            -4.753414764562596,
            -5.026512615752832,
            -5.351322178414595,
            -5.638570108761918,
            -5.925401421090129,
            -6.253139600634945,
            -6.530694520382998,
            -6.8408632062677235,
            -7.15502738782558,
            -7.425308421616968,
            -7.742438384410569,
            -8.038137505214387,
            -8.349293227427225,
            -8.637756402215715,
            0.0
          ],
          [
            0.0,
            9.056814424544477,
            8.767945594719713,
            8.451831249854301,
            8.15983202205593,
            7.86210600814438,
            7.552521862094466,
            7.26608070221782,
            6.955448954120776,
            6.666630172474427,
            6.362760791567659,
            6.045010080987801,
            5.759698720240543,
            5.473139362616358,
            5.162958804880219,
            4.835338405675792,
            4.574723254508413,
            4.240506822281759,
            3.981657660379561,
            3.6445261980615626,
            3.3543375259659065,
            3.0820100243831092,
            2.759572714210716,
            2.4443665007301547,
            2.1759907132283764,
            1.851853163577708,
            1.5684460793699841,
            1.2605409250338475,
            0.9482576280510351,
            0.6608054863410118,
            0.36311150666655934,
            0.05909134043210429,
            -0.22396677202266346,
            -0.5500287994188824,
            -0.798150049944411,
            -1.1408715815515293,
            -1.4408785125721408,
            -1.7578826952557165,
            -2.0069643796472185,
            -2.3555570598619653,
            -2.6157244567559736,
            -2.9573850081673676,
            -3.2417113535235913,
            -3.496659586432493,
            -3.856544081354766,
            -4.139018268491522,
            -4.417833008325857,
            -4.756285705768516,
            -5.039011737039623,
            -5.328845387465858,
            -5.652278278255501,
            -5.9435507669288015,
            -6.238422717031067,
            -6.53032007965821,
            -6.85134621039672,
            -7.140330268321495,
            -7.4290769499821,
            -7.752404607592009,
            -8.03581197323047,
            -8.351591666929732,
            -8.637182989172253,
            0.0
          ],
          [
            0.0,
            9.058967836923717,
            8.757540102527376,
            8.459346382271793,
            8.172017104768525,
            7.8532757219217935,
            7.562141348057612,
            7.2720025753485125,
            6.949476601008545,
            6.659380471757924,
            6.360646678931854,
            6.072331508444538,
            5.751906425154285,
            5.46219787826929,
            5.175131587718635,
            4.841104944879422,
            4.562307849788173,
            4.274852288443196,
            3.9634139463300997,
            3.6586532899185187,
            3.340934068435253,
            3.0768457127235322,
            2.7437234058982156,
            2.4729653234530744,
            2.145186982594897,
            1.8663864581661187,
            1.559074634041771,
            1.2459604366636263,
            0.9697985357855963,
            0.6608466214912951,
            0.3584236110144907,
            0.058705576237169765,
            -0.2380750494399777,
            -0.5493030422381722,
            -0.8303445054582674,
            -1.1436909558163322,
            -1.4272481931076868,
            -1.7498811549598656,
            -2.036012757604155,
            -2.3412032545764276,
            -2.6382791372687144,
            -2.92071507902347,
            -3.2600582991642995,
            -3.506813255877436,
            -3.8569974957797157,
            -4.140012681857005,
            -4.423583042377217,
            -4.751683617371388,
            -5.040097630637806,
            -5.329608229878655,
            -5.64117245340206,
            -5.953059550243033,
            -6.235556279853466,
            -6.543059161749767,
            -6.829097752458313,
            -7.1386470620388245,
            -7.459239549077402,
            -7.7303213951037435,
            -8.044931708564206,
            -8.332645320311986,
            -8.64251068811867,
            0.0
          ],
          [
            0.0,
            9.061097630410213,
            8.755887173523536,
            8.46724098625791,
            8.146255260237165,
            7.859641029957036,
            7.5756868312852355,
            7.258819100460027,
            6.949242830001015,
            6.67133864116418,
            6.359979417341197,
            6.054716030356889,
            5.752942531329683,
            5.460326177439423,
            5.168932936302799,
            4.864562558802522,
            4.561863943565729,
            4.25966983049501,
            3.9585148180076324,
            3.6410629413275934,
            3.3804468927478446,
            3.0584356913303523,
            2.745849311917766,
            2.4594373028249272,
            2.1606007878071622,
            1.8725319902767126,
            1.5608347722379357,
            1.2403380580517656,
            0.9734086542803375,
            0.6405473612061776,
            0.3603286762744915,
            0.08215034893011364,
            -0.2388584967090992,
            -0.5393970718656576,
            -0.8433376126053105,
            -1.1396158333600646,
            -1.4531476841761872,
            -1.7415510915176,
            -2.0383991093085427,
            -2.3253166378652956,
            -2.640098167971228,
            -2.9550524530753606,
            -3.2402199191751784,
            -3.498815678165794,
            -3.853220230347162,
            -4.141407274411122,
            -4.415167611562978,
            -4.748589830958924,
            -5.044585008751362,
            -5.3338663082870355,
            -5.652060778019699,
            -5.924984784804771,
            -6.238233646847402,
            -6.542432377553098,
            -6.843151520562973,
            -7.136426757772828,
            -7.458148019130007,
            -7.739801648277503,
            -8.035360000809131,
            -8.346576762589475,
            -8.639771954083365,
            0.0
          ],
          [
            0.0,
            9.058383540011327,
            8.758394693669722,
            8.459467532242208,
            8.171430413328928,
            7.861614157698696,
            7.559705127733217,
            7.2655342891914,
            6.94032314001759,
            6.6604027655229245,
            6.381808397208779,
            6.040989682080983,
            5.760549828594982,
            5.476961438250079,
            5.1621461631977255,
            4.835281208027638,
            4.561980711581562,
            4.278680785375542,
            3.962282491999762,
            3.6428042778153262,
            3.363339489180671,
            3.0835607068086297,
            2.7453454224237284,
            2.4749632757459565,
            2.1554843004235593,
            1.863690587439308,
            1.5438926624783846,
            1.2574239152264752,
            0.9728564570464613,
            0.6581425954318334,
            0.3568881726816926,
            0.02395191899082505,
            -0.23891937003510222,
            -0.5404126138523893,
            -0.7980285096648068,
            -1.1411884928867764,
            -1.4598115719784133,
            -1.726753160868661,
            -2.0796925169140614,
            -2.3250891831602125,
            -2.639421591246535,
            -2.958070949481126,
            -3.2390488733785894,
            -3.5422359449383514,
            -3.8246016373582705,
            -4.141560348112591,
            -4.464007796732549,
            -4.719409986064072,
            -5.050657370615994,
            -5.344157843153525,
            -5.637859681465194,
            -5.940946246507291,
            -6.224849660470554,
            -6.549826553094363,
            -6.823758877119545,
            -7.139133494658605,
            -7.44386347241927,
            -7.750868468161688,
            -8.03544682206834,
            -8.341480810310287,
            -8.64204634027071,
            0.0
          ],
          [
            0.0,
            9.063161578458317,
            8.751541361253022,
            8.469389920361426,
            8.156581316152323,
            7.849846639760852,
            7.567605142855886,
            7.246456784146641,
            6.959305311073816,
            6.659661318853377,
            6.390390474465352,
            6.039741270984539,
            5.761134781089293,
            5.485833866183089,
            5.158179830647388,
            4.832664781637586,
            4.556909307205611,
            4.259916816386795,
            3.960671177599739,
            3.6832385639165572,
            3.357211504882681,
            3.0314346073990137,
            2.757599373349123,
            2.4591190788264363,
            2.1814654233386186,
            1.8613725279262674,
            1.5431628918499989,
            1.286622442228694,
            0.9467466840149932,
            0.6860901508299513,
            0.3292311521667841,
            0.060157250996656586,
            -0.223031272920025,
            -0.5575632776813215,
            -0.8414225222762326,
            -1.1220303034445642,
            -1.4425021246806153,
            -1.7587632542647214,
            -1.9978744482697586,
            -2.360764203202411,
            -2.641597147449879,
            -2.937083382953073,
            -3.230118281893958,
            -3.5047287658284603,
            -3.8417225112500297,
            -4.159976986483223,
            -4.406739378544103,
            -4.757387310013062,
            -5.024512536925499,
            -5.339547447707709,
            -5.6655154889676,
            -5.939475236754738,
            -6.235892881075237,
            -6.545593213739107,
            -6.8163437920967525,
            -7.157229101469984,
            -7.425952544414663,
            -7.740791793959833,
            -8.041876054816111,
            -8.352537760343697,
            -8.636698254530593,
            0.0
          ],
          [
            0.0,
            9.062521352105932,
            8.754498262894145,
            8.467950123734575,
            8.148630257472,
            7.857214537537892,
            7.577154269475173,
            7.24529950199328,
            6.956860673221264,
            6.663476066328727,
            6.35412537347451,
            6.080252123893516,
            5.761123962922397,
            5.441866971016964,
            5.177115504197005,
            4.831975933561964,
            4.57992521837528,
            4.238891652626755,
            3.982876992694081,
            3.66118951358731,
            3.3419568277731173,
            3.059440484924636,
            2.7792396810823554,
            2.4596165604693496,
            2.1406552473845686,
            1.8584640511221018,
            1.5600489836674036,
            1.2709160297654734,
            0.9558848528780466,
            0.6639281425415042,
            0.38058917102869927,
            0.05948544264270694,
            -0.25175622147360954,
            -0.5395477321171036,
            -0.8234974320239097,
            -1.146258646071999,
            -1.440685467644002,
            -1.7392662434710573,
            -2.012907425994001,
            -2.354078669798522,
            -2.6389933780859707,
            -2.939813945184376,
            -3.2165217348252853,
            -3.5621061954590374,
            -3.84792439659153,
            -4.140421278931765,
            -4.415886428814144,
            -4.759959928490318,
            -5.0246708334603305,
            -5.339843416887682,
            -5.659498696470013,
            -5.938738184631369,
            -6.226414750914852,
            -6.54136602276861,
            -6.848716289493609,
            -7.1245622898155965,
            -7.437382465016356,
            -7.752595452566091,
            -8.036344702619463,
            -8.352827338571501,
            -8.63919277557713,
            0.0
          ],
          [
            0.0,
            9.061279507135769,
            8.759128833795234,
            8.452896637052095,
            8.156289465338855,
            7.871294832170815,
            7.557979497191877,
            7.240607058798677,
            6.957221847984879,
            6.6618044834578605,
            6.378954552413479,
            6.041880012269356,
            5.7731078027254235,
            5.459384938992532,
            5.139194672589522,
            4.883978269165059,
            4.5614469536672395,
            4.244008742494945,
            3.9551925964717434,
            3.674316176157621,
            3.339559138053808,
            3.0678802117204356,
            2.7750757749911656,
            2.4622510790727574,
            2.152750186389511,
            1.8613100478617213,
            1.5524260688896874,
            1.2875375701648508,
            0.962483542690574,
            0.6552191997511656,
            0.3328225616298468,
            0.061296631507492094,
            -0.22928136503679042,
            -0.5372220522557107,
            -0.8721480920914075,
            -1.1424034178808995,
            -1.4226828818885942,
            -1.7545505127083239,
            -2.0058308041225708,
            -2.3414801303639017,
            -2.6705397660558035,
            -2.9339462267708036,
            -3.242045319934295,
            -3.494555613060868,
            -3.8376635368705756,
            -4.157470523619345,
            -4.442469826340396,
            -4.741419161736889,
            -5.040366404710301,
            -5.325492926498555,
            -5.636990621420889,
            -5.952181787076988,
            -6.235654269529483,
            -6.531329917540393,
            -6.852290423773393,
            -7.129766621496572,
            -7.465169957375803,
            -7.739521842391483,
            -8.032541890712931,
            -8.349116454632139,
            -8.638028014212054,
            0.0
          ],
          [
            0.0,
            9.060895099063064,
            8.754590069525488,
            8.46644213588753,
            8.1426002963283,
            7.859098302471654,
            7.574306740484136,
            7.240701607425979,
            6.957856373138139,
            6.674125326109245,
            6.3579911321967835,
            6.0343754550879645,
            5.765629429179246,
            5.468958914881757,
            5.142061814602226,
            4.888686736642558,
            4.560607298634832,
            4.235702006466983,
            3.9596305870991024,
            3.6587443365062065,
            3.3815105350706887,
            3.0484684684637493,
            2.7638489009537714,
            2.456879397317799,
            2.1692845653588044,
            1.8437019696124004,
            1.568101826473189,
            1.252811688032267,
            0.9740691867577453,
            0.6356467184760959,
            0.3862207421607735,
            0.06061611879279738,
            -0.252685367636559,
            -0.528219645192678,
            -0.8786276495906442,
            -1.1383301043662755,
            -1.4408683222620375,
            -1.7257131392087928,
            -2.037870721532581,
            -2.3530116688120266,
            -2.6397135059100094,
            -2.9059659258890775,
            -3.258754442584525,
            -3.5393942141671424,
            -3.8186485579520095,
            -4.157986529041711,
            -4.429683043811153,
            -4.749476261741638,
            -5.025084155663222,
            -5.3517639426595345,
            -5.637989921794702,
            -5.936828854369324,
            -6.22207035231542,
            -6.553118083728485,
            -6.833686557071054,
            -7.149828092606569,
            -7.43981340511769,
            -7.730049996034783,
            -8.039095455008464,
            -8.349570603456701,
            -8.6381016844955,
            0.0
          ],
          [
            0.0,
            9.06197990980353,
            8.7558710958503,
            8.467965597587739,
            8.149548892367928,
            7.86058252124889,
            7.561827752189249,
            7.271918644370427,
            6.961850153069921,
            6.646988300130342,
            6.358957095898749,
            6.074970438716857,
            5.749939748300161,
            5.459512202298274,
            5.17585677740902,
            4.8390912458468485,
            4.573002312076486,
            4.243864009156471,
            3.9603378371029656,
            3.6746022738746547,
            3.351403398424562,
            3.050735587829937,
            2.7778076318939107,
            2.459499528859453,
            2.1482375492813937,
            1.8727635649292012,
            1.5458523038890526,
            1.2796652969464226,
            0.960609907862974,
            0.6449040534544039,
            0.35956599900583797,
            0.08303247391516067,
            -0.2402277173913312,
            -0.5472953505608515,
            -0.8439418421132068,
            -1.128903481647189,
            -1.4578586374680427,
            -1.7392061900609335,
            -2.0135522266286188,
            -2.339136881119863,
            -2.6423616351478287,
            -2.9591443448929766,
            -3.2393256685402285,
            -3.5405298511890955,
            -3.839164661778497,
            -4.139572272231913,
            -4.416299977767856,
            -4.738414570892921,
            -5.040532357379625,
            -5.351139419849048,
            -5.642689462425807,
            -5.938811867994275,
            -6.231400435244019,
            -6.550518877671323,
            -6.829944771545279,
            -7.138503299896719,
            -7.457731142475744,
            -7.738804782613453,
            -8.034926028926872,
            -8.346656643883556,
            -8.638332206754495,
            0.0
          ],
          [
            0.0,
            9.061171341492507,
            8.760252524337243,
            8.459348337569129,
            8.155156550442161,
            7.858859561177848,
            7.566648760308983,
            7.258679742768958,
            6.96262948394217,
            6.652112577651625,
            6.364492961458158,
            6.056885642001536,
            5.767666153583146,
            5.459792490338234,
            5.148813449352037,
            4.858426158022578,
            4.567992643238785,
            4.251959195114313,
            3.9761732110913606,
            3.6497820784491815,
            3.3616717313163775,
            3.0714263443148795,
            2.7509075192848087,
            2.467857065892325,
            2.1580603030196244,
            1.8614257632731466,
            1.5488612678626588,
            1.2586939594132645,
            0.9681705369666531,
            0.6615904043001315,
            0.3467553889578099,
            0.06024479746276512,
            -0.2405072530682375,
            -0.5321978674191854,
            -0.8430831548116835,
            -1.1389653856127175,
            -1.4494479878206867,
            -1.7400303889803155,
            -2.0382477416589673,
            -2.3403674083623365,
            -2.631020568696531,
            -2.951857362997842,
            -3.227511054963614,
            -3.539442569197199,
            -3.8514128067794644,
            -4.138853571913881,
            -4.439049002930311,
            -4.733106965291096,
            -5.04501869980345,
            -5.340967233457466,
            -5.631313901955227,
            -5.947853677213942,
            -6.240237655742355,
            -6.5347850441792446,
            -6.8465816234224945,
            -7.13217215280482,
            -7.4428843090956285,
            -7.744370338954152,
            -8.037578872921156,
            -8.343845259309731,
            -8.638726297587517,
            0.0
          ],
          [
            0.0,
            9.062628413108232,
            8.759126083833113,
            8.455788765935946,
            8.171519592643467,
            7.850581087102011,
            7.571129464965967,
            7.2508009460793765,
            6.968049054540227,
            6.649916665042451,
            6.373805790725793,
            6.06012580501665,
            5.747745528933859,
            5.461266890940447,
            5.174045351616716,
            4.860688123034873,
            4.55990172098797,
            4.246981638365316,
            3.960230483188351,
            3.671674722150872,
            3.3468088696215403,
            3.074570184367097,
            2.7422982126662774,
            2.4592620208158493,
            2.16815084287666,
            1.8473755552356899,
            1.5600895941994075,
            1.2590741189583028,
            0.965595589721552,
            0.6654811239586849,
            0.3584549120860885,
            0.061613893370914496,
            -0.250667250315864,
            -0.5305093986111658,
            -0.8717613446415413,
            -1.139668278934522,
            -1.4250892958037191,
            -1.739504126011333,
            -2.0366007196210347,
            -2.3391450285600115,
            -2.653190305106751,
            -2.9395234872243314,
            -3.2252211625738987,
            -3.5591602541259455,
            -3.8436613012773364,
            -4.128015499024048,
            -4.457888263923881,
            -4.740163170259152,
            -5.024970740824646,
            -5.343681555223153,
            -5.632566352452514,
            -5.953663175978814,
            -6.233622711508669,
            -6.5470367069283455,
            -6.840404007928004,
            -7.1390623217585905,
            -7.426917550277132,
            -7.738560777087873,
            -8.040839647840993,
            -8.344566580276314,
            -8.640002270426699,
            0.0
          ]
        ],
        "bin_weights": [
          0.0,
          21.0,
          18.0,
          17.0,
          12.0,
          18.0,
          13.0,
          13.0,
          18.0,
          16.0,
          12.0,
          13.0,
          19.0,
          15.0,
          13.0,
          11.0,
          19.0,
          15.0,
          12.0,
          17.0,
          13.0,
          15.0,
          16.0,
          19.0,
          20.0,
          20.0,
          21.0,
          13.0,
          25.0,
          17.0,
          13.0,
          11.0,
          23.0,
          26.0,
          9.0,
          26.0,
          19.0,
          21.0,
          10.0,
          21.0,
          14.0,
          15.0,
          14.0,
          7.0,
          18.0,
          19.0,
          11.0,
          16.0,
          18.0,
          24.0,
          13.0,
          16.0,
          19.0,
          22.0,
          18.0,
          16.0,
          10.0,
          14.0,
          27.0,
          14.0,
          25.0,
          0.0
        ]
      },
      {
        "term_features": [
          "Diet Quality"
        ],
        "scores": [
          0.0,
          0.39338737756643666,
          3.3909212394201247,
          -2.6064382315892005,
          0.0
        ],
        "standard_deviations": [
          0.0,
          0.0006347193138187726,
          0.001034035028408675,
          0.000742895877601287,
          0.0
        ],
        "bagged_scores": [
          [
            0.0,
            0.3931954637381452,
            3.3907207570198565,
            -2.606006120892726,
            0.0
          ],
          [
            0.0,
            0.39384711705480413,
            3.390576855950414,
            -2.6069972065487974,
            0.0
          ],
          [
            0.0,
            0.3934639295499949,
            3.3923301372507666,
            -2.6073779437675277,
            0.0
          ],
          [
            0.0,
            0.39240716804769704,
            3.3925970838214887,
            -2.6057901318594148,
            0.0
          ],
          [
            0.0,
            0.39323049789019393,
            3.3913538817297066,
            -2.6064294491984086,
            0.0
          ],
          [
            0.0,
            0.3935747570311605,
            3.390605748975357,
            -2.6065649351919795,
            0.0
          ],
          [
            0.0,
            0.3927032533198229,
            3.3912698556978675,
            -2.6055118277946647,
            0.0
          ],
          [
            0.0,
            0.39477399269201285,
            3.389192563828381,
            -2.6077257393254953,
            0.0
          ],
          [
            0.0,
            0.39315033185665627,
            3.391286926045005,
            -2.6062586430348773,
            0.0
          ],
          [
            0.0,
            0.3929300045315145,
            3.390020292018768,
            -2.6051640793127895,
            0.0
          ],
          [
            0.0,
            0.3944339896236322,
            3.3887889299038925,
            -2.6069322166144318,
            0.0
          ],
          [
            0.0,
            0.3931244458902512,
            3.3908510458671692,
            -2.605964287290785,
            0.0
          ],
          [
            0.0,
            0.3927805714121959,
            3.3918194558143746,
            -2.6059566276851776,
            0.0
          ],
          [
            0.0,
            0.39380776329203115,
            3.391483817958708,
            -2.607456033731733,
            0.0
          ]
        ],
        "bin_weights": [
          0.0,
          511.0,
          179.0,
          310.0,
          0.0
        ]
      },
      {
        "term_features": [
          "Cigarettes per Day",
          "Age"
        ],
        "scores": [
          [
            0.0,
            0.0,
            0.0,
            0.0,
            0.0,
            0.0,
            0.0,
            0.0,
            0.0,
            0.0,
            0.0,
            0.0,
            0.0,
            0.0,
            0.0,
            0.0,
            0.0,
            0.0,
            0.0,
            0.0,
            0.0,
            0.0,
            0.0,
            0.0,
            0.0,
            0.0,
            0.0,
            0.0,
            0.0,
            0.0,
            0.0,
            0.0,
            0.0,
            0.0,
            0.0,
            0.0,
            0.0,
            0.0,
            0.0,
            0.0,
            0.0,
            0.0,
            0.0,
            0.0,
            0.0,
            0.0,
            0.0,
            0.0,
            0.0,
            0.0,
            0.0,
            0.0,
            0.0,
            0.0,
            0.0,
            0.0,
            0.0,
            0.0,
            0.0,
            0.0,
            0.0,
            0.0
          ],
          [
            0.0,
            0.0013380926954487953,
            0.0034184331319386634,
            0.0004199105195435033,
            0.0029333120198671084,
            0.0025549874579969298,
            0.0011082160084616237,
            0.005967684105133752,
            0.003399244234910689,
            0.0010863499361055415,
            -0.001185123407405456,
            0.003919798126152618,
            0.0034782613586884256,
            -0.0013930779141672323,
            0.0050023945177015295,
            0.007349423808842341,
            0.0071679271082297534,
            0.010000470567047622,
            0.008642761341750986,
            0.006904794103814669,
            0.008572390252360403,
            0.0032340750984483644,
            0.001908487319394098,
            0.003171400941092226,
            0.0029570666481641564,
            0.0003061469016050615,
            0.006701233911586663,
            -0.0004619968637502316,
            -0.0028133059903503368,
            0.0003000004895669185,
            0.00016614942169684946,
            0.00026518037246445886,
            0.00029961148450874744,
            0.00037284273885812027,
            0.0019093287631751174,
            -0.00022909454420312261,
            0.0016930530614022422,
            0.0017197928120970905,
            -0.006113658608719123,
            -0.0003248090752744647,
            0.001966701548476106,
            0.002169184999863678,
            -0.0008051559724326822,
            -0.007533839476522788,
            0.0022919733141114357,
            0.000548698229570447,
            -0.005782683718927668,
            0.004663691748284157,
            -0.0038322346086354093,
            0.0007920950424451873,
            0.003867922130225267,
            0.00013756294852474397,
            -0.0037453562454185713,
            0.0005923798985098503,
            -0.0017249606652248771,
            0.0010278917425018783,
            -0.0004697825520350098,
            0.0008014357343573115,
            -0.0035365325812948575,
            0.0016253673823082159,
            -0.002289265195784604,
            0.0
          ],
          [
            0.0,
            -0.0006093361664837414,
            0.0013730944373107727,
            -0.0016211231106529982,
            0.0009094132262628988,
            0.00040837209328155875,
            -0.0014670082128430302,
            0.00402994568366274,
            0.0017671446372596684,
            -0.0009777823964927555,
            -0.0037365231931674515,
            0.0016293700695354909,
            0.0013080759391384117,
            -0.004742226908873823,
            0.0016497480728372006,
            0.00408191458312764,
            0.0032140263450818884,
            0.0060040535024801075,
            0.004197524763069732,
            0.0023261472005437177,
            0.003927494392904745,
            -0.0005391489228780372,
            -0.001790976922945373,
            -0.0010110724918193526,
            -0.0008974075627624426,
            -0.0032444049944306257,
            0.0020389570134047934,
            -0.0023941466126253166,
            -0.004510150317849022,
            -0.0015382481934077194,
            -0.0010462639071006845,
            -0.0010599527904747168,
            -0.0002445906165626763,
            -0.0006298603699908478,
            0.0006262970634560449,
            -0.002385048575642434,
            -0.0001369240610153338,
            -0.0004966780637387109,
            -0.008504938515539347,
            -0.0028292147786720388,
            -0.000516178335941341,
            -0.0001611541325724535,
            -0.0028803061597820812,
            -0.008666450866454478,
            0.0016584413603453177,
            -0.0001956535209149325,
            -0.00657066740271639,
            0.0033553919369332203,
            -0.005056550697427827,
            -0.001477097627887201,
            0.0017447839945817325,
            -0.0016829325291114684,
            -0.00568672844175351,
            -0.0009266728530186715,
            -0.0028668785968640823,
            8.432079561491421e-05,
            -0.0014464806972218614,
            -0.0001387361115363033,
            -0.004484607969895641,
            0.0006944840126346286,
            -0.0032109344789009015,
            0.0
          ],
          [
            0.0,
            0.0014257274174771213,
            0.003425188466350097,
            0.0005329004878530115,
            0.0028838335797695485,
            0.0015675703539698009,
            -0.0002588927166052447,
            0.005059356937258487,
            0.002547188778746181,
            0.0002590620925659719,
            -0.002466408720034864,
            0.004012972468559884,
            0.002943763713567179,
            -0.004145909025657913,
            0.0017176854059090052,
            0.004243410924101937,
            0.004190103978672491,
            0.007547710763121124,
            0.004171772684081011,
            0.002431750956983644,
            0.004821565039349756,
            0.0014527210338925612,
            0.00021062227415141998,
            0.00034333338304834687,
            0.0018574170380494892,
            0.00020886855644884823,
            0.005318043764005043,
            0.0008769251332775903,
            -0.0018111076860219046,
            3.261506988685135e-05,
            -0.00040259442777946093,
            -0.00014488644932863929,
            0.00018425971629000128,
            -0.0003710765988954491,
            0.0009194977241725712,
            -0.002327566328918663,
            0.0005368075145736268,
            0.00046168293388157693,
            -0.005357337529397931,
            -0.00023407869468892772,
            0.0016648842548208182,
            0.0024570709170835736,
            -0.0010810922056573333,
            -0.006750496307343791,
            0.0032650289611973827,
            0.0016697264750636302,
            -0.00448978669634208,
            0.006070783705177427,
            -0.0015952041749844187,
            0.0010961430397671054,
            0.003921195809089183,
            0.00034303570769018,
            -0.003244310793504978,
            0.0012384236502839317,
            -0.0011503177591455922,
            0.0015146770969114512,
            0.0015455115912987932,
            0.0030384797785468452,
            -0.001606637397577446,
            0.0035796852810550013,
            -0.0004382328378432864,
            0.0
          ],
          [
            0.0,
            -0.001731135838907832,
            0.00029360323994081583,
            -0.0024848391055118492,
            0.0006231370918488155,
            -0.0008675699177612072,
            -0.002662948479483211,
            0.0031319704881353425,
            0.0005641894386802206,
            -0.0019238943172804966,
            -0.005155563902355157,
            0.001207095968770383,
            0.0006338436274082185,
            -0.006337516086336451,
            -0.002491303874423868,
            -0.00011088045319830429,
            -0.0027105920862103886,
            0.0006654825695944222,
            -0.0031291197212484608,
            -0.0041489272449290494,
            -0.0005906644461996301,
            -0.0035622312268308942,
            -0.004290758413588857,
            -0.004328058242289613,
            -0.0026849784720511588,
            -0.00345182641839823,
            0.0025929454701202983,
            -0.0014823467739794242,
            -0.004219223800453444,
            -0.002259312540070412,
            -0.0036291683228444503,
            -0.003610165068643625,
            -0.002537455689091243,
            -0.00238708880876401,
            -0.0012536415796829392,
            -0.005144118058683141,
            -0.0022509082231508167,
            -0.0016637985882516624,
            -0.007639793087781012,
            -0.0027989146817907528,
            -0.000764598319366266,
            -0.0006178424327954863,
            -0.0002701649097288963,
            -0.008877962522191012,
            0.0007361692751951787,
            -0.0008685636244789225,
            -0.008457356347632153,
            0.0020883583665219155,
            -0.004257801635744562,
            -0.0016707972228470226,
            0.0012721793360837925,
            -0.002595416855490278,
            -0.005962420604562613,
            -0.0016913602544030859,
            -0.004118732552921208,
            -0.001950496249673681,
            -0.002660259490595305,
            -0.0014023951181594708,
            -0.005156564859971533,
            -8.163431233290045e-05,
            -0.004198610564746146,
            0.0
          ],
          [
            0.0,
            0.0019795648191866964,
            0.0042128022826646025,
            0.001951861399620199,
            0.004142658559862064,
            0.003113703766975451,
            0.0017079435836412538,
            0.006479428222834226,
            0.004130879324695674,
            0.0016594878500119268,
            -0.0017943795582163915,
            0.004752053824700649,
            0.003737382425700298,
            -0.0020358134219829365,
            0.0013537415033859157,
            0.005338558354168773,
            0.0018428977717141728,
            0.004327027322636038,
            0.0005764507842662503,
            -0.0001359677709758735,
            0.006877928218977647,
            0.0037681983041037747,
            0.002878888390468964,
            0.0010383278270781598,
            0.0020966030843721185,
            0.0007023582250814283,
            0.006128587355380279,
            0.0021891987362162263,
            -0.000995814308219569,
            0.001132279175639145,
            0.00042764990276129904,
            -0.0001672236545121535,
            0.000706725183129227,
            0.0011180199138846668,
            0.0027870231024978214,
            -0.0013409734135406766,
            0.0009115830281354643,
            0.0020856859196062847,
            -0.004086261418424107,
            0.0005447026668862102,
            0.002670011651892576,
            0.0032273941669378153,
            0.0011279611429671293,
            -0.006708904429652436,
            0.0028678517078477342,
            0.0018784449143835853,
            -0.007051035818968821,
            0.004505957648338199,
            -0.0011105907387704882,
            0.0017380321835148988,
            0.004723035742322566,
            0.0013744473480620234,
            -0.0018695597596406763,
            0.002487571269922848,
            6.318991271919483e-05,
            0.0021644704648499493,
            0.0016014740379542932,
            0.0021344622521556004,
            -0.0011317673290435078,
            0.003007488602461825,
            -0.001192689539040778,
            0.0
          ],
          [
            0.0,
            -0.00033778778351714546,
            0.001964946664981126,
            3.1104650253446146e-05,
            0.0019539688287153563,
            0.0012121002013611415,
            -1.7447445659183145e-05,
            0.004419290041555125,
            0.002163376906669894,
            -0.000445496416075136,
            -0.004028649226198002,
            0.0021214535692947695,
            0.0005873993033136525,
            -0.005612289960110213,
            -0.002877580644365917,
            0.0019558195216919025,
            -0.0019014673252719264,
            0.000843833706021448,
            -0.0027080956121012722,
            -0.0023468210065960104,
            0.004819183715367537,
            0.001766981862613824,
            0.00018333794277110803,
            -0.0016635277806737903,
            -0.0010246088634952642,
            -0.002120953848997857,
            0.0020293426470224894,
            -0.0011238297964848794,
            -0.0027546663242769237,
            7.02792465369905e-05,
            0.0001914161701671679,
            -0.0009859201199836065,
            -0.0008752315227649769,
            -0.0005226731290114774,
            0.001128859339207543,
            -0.0032801923512269576,
            -0.0010612492709733104,
            0.0002317712498325512,
            -0.005967573958478125,
            -0.0011796976638966165,
            0.0012023118668255388,
            0.001984990492753823,
            -9.953109474686924e-05,
            -0.008083463297238547,
            0.0009141801404665071,
            0.00016925008316769964,
            -0.007593654932178872,
            0.00015117225738850643,
            -0.004901784689954186,
            -0.0011898360228072885,
            0.0016865412873786209,
            -0.0016494834363730841,
            -0.0050565188078493285,
            -0.0005378474233986295,
            -0.0026979803689380633,
            -0.0007857643373195206,
            -0.0014763374553961863,
            -0.0008132780565414455,
            -0.0038365885183844098,
            0.000571369171470934,
            -0.0032074165252848467,
            0.0
          ],
          [
            0.0,
            0.00024668267782282317,
            0.002574223531539382,
            0.0008895343578574031,
            0.002851350400426192,
            0.0021989913493137324,
            0.00032930001408492743,
            0.004530754255576885,
            0.0029053916210761924,
            0.00017713432118347415,
            -0.0035723008394678885,
            0.002860912015609862,
            0.0016061533874233615,
            -0.004283332341595229,
            -0.001583667305248451,
            0.003278363905910823,
            -0.001317599623432651,
            0.0012778455282941958,
            -0.0025147922277631816,
            -0.002529823496574855,
            0.004545465542959395,
            0.00016479001331075007,
            -0.0012084356109679259,
            -0.0030842419673039146,
            -0.0018729133546980473,
            -0.0030294902898131562,
            0.0006098500423927502,
            -0.0033584409040828874,
            -0.004011426793936831,
            -0.00048604322525847606,
            0.0003590841216595842,
            -0.0007540503744246064,
            -0.00038625622014258035,
            1.457138208929516e-05,
            0.0014808177903257065,
            -0.0022282660151290608,
            8.537614761890944e-05,
            0.0009556166930816728,
            -0.005007551079406217,
            -0.0011501348256367106,
            -0.00021110834907293597,
            0.0013532293671447645,
            -0.0009279137589364734,
            -0.008891401274408597,
            0.0006943965729563398,
            0.0008642310283707306,
            -0.006821418652099488,
            0.0005800703973943945,
            -0.00462556172109488,
            -0.0003548146912488041,
            0.002686239446061735,
            -0.0007763101577721913,
            -0.004151611317611542,
            0.00018189917598922516,
            -0.0016974098574408366,
            0.0009717070539233012,
            0.00028002410096643793,
            0.0008901454176780664,
            -0.002561222447540115,
            0.00028756719929653015,
            -0.0033449400021578705,
            0.0
          ],
          [
            0.0,
            -0.00033868766480581826,
            0.0021136698195752973,
            0.00013052368246179195,
            0.0019323128317085413,
            0.000945478725335804,
            -0.001338670927195774,
            0.003002151548624193,
            0.0019197603111175603,
            -0.0008597647796395845,
            -0.004347273052182852,
            0.002545616531822136,
            0.0016337473320079772,
            -0.004451857706560817,
            -0.0005273371322275544,
            0.005709134022230033,
            6.727524064350309e-05,
            0.002958517998520629,
            -0.002132671464812426,
            -0.0025231810805527383,
            0.004629345773121818,
            0.00037999433650511374,
            -0.00041573475717609544,
            -0.0022365163827840102,
            -0.0006779734286161575,
            -0.0012164586806084822,
            0.0028007212395810186,
            -0.0014277985207487667,
            -0.002123953764326405,
            0.0005955256601021101,
            0.0018444189746446354,
            -0.0015596612838407753,
            -0.0011012855186236048,
            -0.001134232401986608,
            0.0005226730174412736,
            -0.0034742823157799547,
            -0.0013641067366048033,
            -0.000412568952184126,
            -0.005538061238627769,
            -0.0015445495519130728,
            -0.0007201417001403991,
            0.0009445696848087105,
            -0.0013708493667555582,
            -0.008887039112148673,
            0.0009600206631741132,
            0.00069322323560778,
            -0.006726128432840231,
            0.0007345637723955872,
            -0.004118906165134633,
            -0.00041452812264511726,
            0.0023582251884435848,
            -0.0015105051707519144,
            -0.005229982629846204,
            -0.0007441464682154753,
            -0.002393338365143246,
            0.0001269788094440322,
            -0.00024166042142648408,
            0.00014715125266262638,
            -0.0033358030923748725,
            -0.0014567919688823349,
            -0.004270351678666804,
            0.0
          ],
          [
            0.0,
            0.0011338984053631826,
            0.003606126664745769,
            0.0018543313623688039,
            0.003576062816580122,
            0.0020638884437183844,
            -0.0003361148085193324,
            0.003934172658623416,
            0.0028035422856435097,
            0.00025146351982010683,
            -0.0031602810020195196,
            0.0038932383541035276,
            0.0029446123080212458,
            -0.0032649265346754537,
            0.0002922559477774629,
            0.005437238589901989,
            -0.00011105234317935456,
            0.004534474809032498,
            -0.0017628604566841018,
            -0.0015628070262393332,
            0.0055059979335463595,
            0.0018254143517740936,
            0.0011056816990863405,
            -0.0002697444721191996,
            0.0014993360040151283,
            0.0008869344058599097,
            0.004113946605648153,
            9.223864716136819e-06,
            -0.0010120981220421018,
            0.0019440184925557094,
            0.0036300197741822478,
            0.00018560804166647398,
            0.0008711724053115237,
            0.00116379369561936,
            0.0020563118405882816,
            -0.0017289752119034798,
            0.0005780925662830947,
            0.0010797308561217387,
            -0.005273034132590712,
            -0.0009318211823560651,
            -0.0001682955352187608,
            0.0016045035248253648,
            -0.00016362705150170282,
            -0.004301242548163992,
            0.0021354154415554293,
            0.002737314138639937,
            -0.004667568738601533,
            0.0036108782705457656,
            -0.0012394023250193661,
            0.00218231154557694,
            0.004703189154919171,
            0.0007009535158310201,
            -0.0026026300880682327,
            0.0007824404398802081,
            -0.0005998804549108035,
            0.0015908035020188707,
            0.0014927834345724636,
            0.002071577608823744,
            -0.0012845334784905,
            0.0002605836334935037,
            -0.0024284517085099194,
            0.0
          ],
          [
            0.0,
            0.001595580058913296,
            0.004015257337896284,
            0.002220797505046563,
            0.004468898344945831,
            0.0036631749908930806,
            0.00198142037904956,
            0.00666102365454648,
            0.00487525894469266,
            0.002275899925662174,
            -0.0009474451255892188,
            0.006312089134334732,
            0.005289971515202299,
            -0.0010371715299884949,
            0.002211942103693804,
            0.006982129485839289,
            0.0018736789017335662,
            0.006888435834732172,
            0.0011352024732060883,
            0.001574103054573294,
            0.008408773867374469,
            0.003800131999374198,
            0.003677498388227092,
            0.00232998648472295,
            0.0031487283071989216,
            0.0024742884465365532,
            0.005059727096023336,
            0.0008709387570041216,
            -0.00010507276270980493,
            0.002908945569235098,
            0.006070421737331846,
            0.003150769273295576,
            0.002928012013188398,
            0.0035200879066978157,
            0.003569237761425546,
            -0.00077928805193271,
            0.0016942708521626001,
            0.0025418787187258696,
            -0.0040637392930314275,
            0.0009582493429158201,
            0.0013898270965963162,
            0.00240597745512758,
            0.0003993377622939767,
            -0.002511303843802863,
            0.004160607208735701,
            0.0043080574645673764,
            -0.004659590790882866,
            0.003621332367468237,
            -0.0010262179407842969,
            0.0026969754314284874,
            0.005718677314372577,
            0.0019353708532688794,
            -0.001175038400111132,
            0.00014695065278601198,
            -0.0003725544261553213,
            0.0015633248820062767,
            0.0016966249126633285,
            0.0025890980828279925,
            -0.0006117113522175713,
            0.0011778506226252173,
            -0.0008114132959138827,
            0.0
          ],
          [
            0.0,
            -0.001469472144088161,
            0.0009469116471453484,
            -0.000996309710333199,
            0.0013179624478233246,
            0.0008405256232132421,
            -0.001783676456401171,
            0.0022445848218090943,
            0.0010433965880450576,
            -0.0015877470432661776,
            -0.005620568277077614,
            0.0012420234550452641,
            7.442065646654861e-06,
            -0.005409511196409943,
            -0.0019407005143592688,
            0.0028910828187536145,
            -0.001346510224782169,
            0.0037406140223833545,
            -0.003519771563495054,
            -0.0030845696651895078,
            0.0034517242434754705,
            -0.0015345647716002748,
            -0.0013799829475888694,
            -0.003065575010143153,
            -0.002558407674912741,
            -0.002771416612729294,
            2.7487088919951402e-05,
            -0.0031370234922018375,
            -0.003152473370856884,
            -0.0009220144598582745,
            0.0018235421652115324,
            -0.0011158999132981635,
            -0.0013600978479071223,
            -0.0008179317012971805,
            4.9516040998078296e-05,
            -0.004176788598864958,
            -0.0012105740319254934,
            -0.000981611695521134,
            -0.008256259951006545,
            -0.0030752297317389247,
            -0.0030158609565747872,
            -0.002030983890431419,
            -0.00466574294515822,
            -0.007416775842213894,
            -0.0027940464806424908,
            -0.0026979975894167157,
            -0.014320531940266041,
            -0.0019935658764945983,
            -0.006951481082882211,
            -0.0016762829758199247,
            0.0017091559505570185,
            -0.0011804685718736314,
            -0.0038540921276090756,
            -0.002391580479744217,
            -0.0023905184318973993,
            -0.0018541993971373846,
            -0.001964850229277503,
            -0.0010052693653307273,
            -0.004316054193437752,
            -0.002439321468774623,
            -0.004863020596543907,
            0.0
          ],
          [
            0.0,
            0.0004480608101685902,
            0.003140035321693885,
            0.0015358491654517956,
            0.0038176250685180374,
            0.003576636435801376,
            0.0008150380419525197,
            0.00466473425512002,
            0.0030861158137850094,
            0.0004922118551893902,
            -0.003654414877817734,
            0.0016491320548172605,
            0.0007339572611285461,
            -0.0036514902720742944,
            -4.527246038365379e-05,
            0.005354926870033351,
            0.0010139309165227248,
            0.007151480705712088,
            -0.0009511964304845737,
            -0.0003845859209388947,
            0.005427036268470548,
            0.0005829752509918589,
            0.0009105615918445625,
            -0.0010539322623579373,
            -0.0006597527561874664,
            -0.000869833311485917,
            0.001788058612997026,
            -0.0014186155669073583,
            -0.0031426042984581005,
            -0.0016418640724397,
            0.0009091674587210853,
            -0.0019136005732769328,
            -0.0006441686807066224,
            0.0011189676849186396,
            0.0027206990459179995,
            -0.0012427493231017919,
            0.0012557517262185695,
            0.0012089775293842146,
            -0.006180884893287356,
            -0.000706348206456377,
            -0.00016022799865316018,
            0.00079094025051624,
            -0.0019184272992150446,
            -0.0034146411098092177,
            0.0015826635933043828,
            0.0023251179586811993,
            -0.007215036420413108,
            0.005172191223723667,
            -0.003883448897048167,
            0.0007585952752021143,
            0.0030236784932366444,
            0.00033926958044049635,
            -0.0017664490959777939,
            -0.000738565637274888,
            -0.00040559196177274295,
            0.0003094677464861607,
            -6.0720157519563204e-05,
            0.0009473617977473436,
            -0.0026439745012567235,
            -0.0003608417667833562,
            -0.0027487319118400006,
            0.0
          ],
          [
            0.0,
            0.0009396352216193501,
            0.0030358422459692276,
            0.0012124826314996858,
            0.0034845598072262333,
            0.0027645067363003422,
            -8.833016399693724e-05,
            0.004114630671224752,
            0.0032069156581317417,
            0.00024935579760886225,
            -0.0036072801220264346,
            0.00203111570786469,
            0.0019084297625638603,
            -0.001573705837611779,
            0.001248730140660275,
            0.006978129619039036,
            0.0009541274713473311,
            0.006855225303265137,
            -0.0013902112343420585,
            -0.001002607767779715,
            0.004414797793326565,
            -0.0003143225533036345,
            0.0002464912766495231,
            -0.00039058296348520264,
            0.00048441496918647593,
            0.0005728822965191298,
            0.00419462439588847,
            0.0005370294360089429,
            -0.0012643854616497887,
            0.0006428653238722956,
            0.002885822750609482,
            -0.0004221733768852971,
            6.466842338552817e-05,
            0.0015505485416521878,
            0.0010316006914765814,
            -0.00210527073666305,
            0.0007577268758681534,
            0.001106087182614248,
            -0.006113422258023402,
            -0.00036462731849782123,
            0.0012799758876842556,
            0.002518266408251674,
            0.0002961081489327648,
            -0.0015125853566203258,
            0.002331215154177387,
            0.0028365015116056966,
            -0.007453809836257529,
            0.005096482229772606,
            -0.004296178195993844,
            0.00026480536196784725,
            0.0011346971622314141,
            -5.428743591873327e-06,
            -0.002000792095263967,
            -0.0014679247614910133,
            -0.0011095420222372802,
            -4.579236094017435e-06,
            -0.00024976710744182727,
            0.0009335004429531319,
            -0.002221609377306837,
            0.0001984569333479719,
            -0.0024460202750637983,
            0.0
          ],
          [
            0.0,
            -0.0015014836606505996,
            0.0009094539215838634,
            -6.346608329222498e-05,
            0.0012621397708503753,
            0.0008052152460364625,
            -0.001975722833718058,
            0.0020401567674872218,
            0.0011426767777134297,
            -0.0015257371808519544,
            -0.005142396542613582,
            9.492961295400808e-05,
            -0.0002575118051625475,
            -0.00347074555739722,
            -0.0008287674407450626,
            0.004803337019288367,
            -0.0019760464981244553,
            0.004071560236736096,
            -0.004764652706843281,
            -0.003383954153607411,
            0.0015767762524484183,
            -0.002062727173419641,
            -0.0017168616635634436,
            -0.003091728870589997,
            -0.0020230954335022705,
            -0.002107147996416843,
            0.002001709085586018,
            -0.002245075795806572,
            -0.004010576686128524,
            -0.0018792885363764136,
            0.0002598196086784842,
            -0.0029466038133487966,
            -0.0027373367294077047,
            -0.0013193191716179145,
            -0.0016393397834798822,
            -0.004689004216098448,
            -0.002020225366629407,
            -0.0016754811155654332,
            -0.009587896342099368,
            -0.002904439784879421,
            -0.0008668031769701162,
            -0.00011975771225898803,
            -0.0025062784362860904,
            -0.0044117067813579675,
            -3.211961794898386e-05,
            2.116856205699289e-05,
            -0.01017635182511809,
            0.002657554527956406,
            -0.006403085341938003,
            -0.001262525651619154,
            -0.0010981995832265899,
            -0.0019883149840633193,
            -0.0038076617070514325,
            -0.0032425485090176835,
            -0.002892670398368386,
            -0.0019614125012320624,
            -0.0021681118842582104,
            -0.0009223166304403842,
            -0.004310941513879047,
            -0.0005494289826132632,
            -0.004916228108123066,
            0.0
          ],
          [
            0.0,
            0.0016220096319989193,
            0.004171534269074901,
            0.0029134396594793603,
            0.004007285794435264,
            0.0034863251095205655,
            0.0010262582239827143,
            0.004988965669017453,
            0.0037289892963020136,
            0.0018039921805945856,
            0.001390251546227563,
            0.004121268255239321,
            0.0030636310332824365,
            -0.0015700227998082983,
            0.0007493819023690416,
            0.00586221780061831,
            0.00028243678966023667,
            0.007386230997031834,
            -0.0015549341858276434,
            -6.786631582503147e-06,
            0.005106244014762736,
            0.0011033860560228648,
            0.0018702670930350886,
            0.0003325742675414745,
            0.0016476068352891818,
            0.0022399081734584933,
            0.005699983258688457,
            1.305719510768269e-05,
            -0.0011346943083639983,
            0.0012502531808622308,
            0.003985627334839893,
            0.00023859732328806093,
            0.00044163425523096277,
            0.0017193359715414077,
            0.0012683801943180941,
            -0.0017099748545339366,
            0.0009841215710673288,
            0.0007126119444960536,
            -0.006180612646866485,
            -0.0005977228678279987,
            0.0015337989789771967,
            0.002263907164903078,
            -0.0004420993674525697,
            -0.00593026816768509,
            0.001169272577092202,
            0.0007803645482425217,
            -0.010111766076891699,
            0.004058607653561732,
            -0.0038804268112851486,
            0.0012131435215078962,
            0.0007713108910367553,
            6.574544365388249e-05,
            -0.0026102278498592217,
            -0.0016157786272351894,
            -0.0006506893899994981,
            0.0010352110657650584,
            0.0009835631666234314,
            0.002427215441165986,
            -0.0015215481992556983,
            0.0024911170553356915,
            -0.0017577126165391796,
            0.0
          ],
          [
            0.0,
            0.0006394078768695205,
            0.002698102547964526,
            0.0009220896929201147,
            0.0022526674114721175,
            0.0019462040210804139,
            -0.0003431396617043728,
            0.0059904293376861345,
            0.004898383195516008,
            0.0029894981160351617,
            0.0031973733325227635,
            0.005311826252702121,
            0.0037671874000659617,
            -0.0018148219215458835,
            0.0008127096342815927,
            0.006066427602784169,
            -0.00014643591239645991,
            0.006194601660622845,
            -0.0022146244068878386,
            5.714268255694243e-05,
            0.004905251325794988,
            -0.0003034962479973552,
            0.0013679846062197127,
            -6.230620799687464e-05,
            0.0013629162685421616,
            0.0025051710546081245,
            0.005466723485328666,
            -0.0017973654984413299,
            -0.002382632744287275,
            0.0005763223777714081,
            0.003946861382366481,
            0.0001063647618433555,
            0.0002909316306577733,
            0.001552060803990518,
            0.0011445668590689814,
            -0.0016156676930648968,
            0.0013076319142246724,
            0.0011930921692548705,
            -0.006183541212099187,
            -0.0008185818305502121,
            0.0015368800070671624,
            0.002674404796358592,
            -0.0005379585812344015,
            -0.0055349084740729864,
            0.0004906761708590123,
            -0.00048266010370891953,
            -0.010371551830660537,
            0.004522378876895732,
            -0.0040552708116688985,
            0.0008493787886546722,
            0.000426515375782191,
            -0.000280227529491853,
            -0.002864203538829212,
            -0.0017249225929019145,
            -0.0007004008350587463,
            0.001247597743290715,
            0.0013482110475054995,
            0.002867595550071512,
            -0.0006396038399166554,
            0.0035498591246855933,
            -0.0005584762578045087,
            0.0
          ],
          [
            0.0,
            0.0020881739573435348,
            0.004203445850778778,
            0.0020070322320872866,
            0.003572704905334465,
            0.0033573443503105167,
            0.0009527672412727015,
            0.0065939479098097355,
            0.0055849482094261094,
            0.0037442025808969515,
            0.0039192601111521525,
            0.006017814146360523,
            0.004053031410874152,
            -0.0018175716543556996,
            0.0019119990996049148,
            0.007999723854272897,
            0.0015775055024648244,
            0.007713308600959958,
            -0.0004724071088355652,
            0.0029123772940235207,
            0.008300300845916715,
            0.0023466854367654344,
            0.003406316327119603,
            0.0014769480209552532,
            0.0032087849325906125,
            0.003407426619872054,
            0.006479254869129097,
            -0.001576833855772345,
            -0.0017507613397614776,
            0.0014108977570971236,
            0.005413779116114282,
            0.0015755629918212852,
            0.001554891364600369,
            0.002578662666195045,
            0.0013070222140272802,
            -0.0010197864429532446,
            0.002022618632928302,
            0.002023860462550197,
            -0.005764920681025093,
            -0.001207865916482156,
            0.0014537123234620217,
            0.002996623232996595,
            -0.0007054226440037883,
            -0.0033793839018256837,
            0.0026665185487419465,
            0.003132679642068644,
            -0.0066593694144223056,
            0.005033758972554423,
            -0.002872204168531495,
            0.0016211818739809791,
            0.001068959067712082,
            0.00022060038800627505,
            -0.0024115602628774118,
            -0.0012525782837568685,
            0.00019416171397438893,
            0.002100366519807628,
            0.0021346263434326193,
            0.0036526724594396847,
            0.00013377704655392103,
            0.004032584168755134,
            -0.0002976385800124904,
            0.0
          ],
          [
            0.0,
            -0.0008009581497733126,
            0.0012670311551270473,
            -0.002029666035101959,
            4.056430675614768e-05,
            -3.37543707318739e-05,
            -0.0022879605107518812,
            0.0019731258453358643,
            0.0012876969189711826,
            -0.000608170037604175,
            0.0005184399294641876,
            0.0026051454347336463,
            0.001409275092587298,
            -0.004089464028628003,
            -0.00027285400418839464,
            0.00510469009287773,
            -0.001301850552316765,
            0.0038833191200921837,
            -0.004600525131953443,
            -0.001090641497567014,
            0.004781252962152505,
            -0.001643667723180311,
            -0.0005441456993312861,
            -0.003503230696042213,
            -0.0019361463463178977,
            -0.003027134586466431,
            0.0007697898231429893,
            -0.006101774181291135,
            -0.005300129251120095,
            -0.0018620283261125982,
            0.0023191913244385606,
            -0.0024065953254792712,
            -0.0023569408095041743,
            -0.0012097907216405625,
            -0.0027816125751931498,
            -0.00505768964116861,
            -0.0021778644362570607,
            -0.001421058701971058,
            -0.006529942907752328,
            -0.004142937206362292,
            -0.0015490941214443344,
            -7.509051314888318e-05,
            -0.004188468602829445,
            -0.005627213285552457,
            -0.0008606031550275164,
            -0.0011641461461729492,
            -0.010731303705444874,
            0.0023495933510950433,
            -0.004821934375238336,
            -0.001202422886011414,
            -0.0017233193831208997,
            -0.002532474475407811,
            -0.005079788246833299,
            -0.0024823041271827564,
            -0.003141826826217646,
            -0.0015327753696042245,
            -0.0016012659509884002,
            1.3408331011263719e-05,
            -0.003667143137552914,
            -7.836218046647433e-05,
            -0.0050023368783495455,
            0.0
          ],
          [
            0.0,
            0.0007317453291812027,
            0.0027816126497429085,
            -0.00045837833990454923,
            0.001292805498476214,
            0.0012033006437045112,
            -0.0005812112005739369,
            0.002539471066808384,
            0.0016389678329465892,
            -0.0005370511394852322,
            0.0005749903685829767,
            0.002346782998045282,
            0.0013259471696469554,
            -0.0037899246252829414,
            0.0011244083818098707,
            0.006272810762963601,
            1.7981256430263175e-05,
            0.004630867808268714,
            -0.0037163574801600966,
            0.0011521602334299368,
            0.006555412608300731,
            0.00013927773689696482,
            0.0014413160224402847,
            -0.0014067963964089678,
            0.0003639240188776402,
            -0.0008835926288632073,
            0.0030225385819109365,
            -0.004016499634093375,
            -0.003209866118216421,
            -2.3029683403595798e-05,
            0.003852719637104107,
            -0.0008472844267061133,
            -0.000817105995822993,
            0.0010320876452565892,
            -0.0005253404599484934,
            -0.002657207986001085,
            0.0002480012557429755,
            0.001011351145726235,
            -0.0037324912917163808,
            -0.0019640675573183077,
            0.0008396482457327682,
            0.0019726583222092284,
            -0.002045511925928365,
            -0.002893099209635718,
            0.0011730547754252552,
            0.000972182137213599,
            -0.008446283482326584,
            0.0034049550556060496,
            -0.003788633214498293,
            -0.0005839682263041491,
            -0.0011904621098136176,
            -0.0020218074895761093,
            -0.004552759676407267,
            0.0001650733031432804,
            -0.0016919700631414943,
            -0.0010168201691858963,
            -0.0017145411846326507,
            0.00046040647623973245,
            -0.0026383236362193885,
            0.0018205771503304923,
            -0.0031358228764938657,
            0.0
          ],
          [
            0.0,
            0.0014696348029475457,
            0.0035962325052580598,
            0.0005441721473645437,
            0.004245813029346721,
            0.0020669559975652727,
            0.00028306910057154057,
            0.00299997812802442,
            0.0023033661158442273,
            0.0006498039500263059,
            0.00207264318142178,
            0.003949701062963957,
            0.0028898017648823246,
            -0.0028011420754120303,
            0.0018687370697500019,
            0.00611182458051987,
            -0.00018924267511827146,
            0.004359792555931783,
            -0.003790019176124766,
            -0.0009251459327646008,
            0.005099745161963887,
            -0.00039320671895346133,
            0.001756674234559863,
            -8.412841106358763e-05,
            0.0018209845326563122,
            0.00035088015827733723,
            0.0049461910717701115,
            -0.002565301820170037,
            -0.002025721473550462,
            0.0009432153069396514,
            0.0046017770132418135,
            -0.0003816623120712527,
            -0.0005218091785069291,
            0.001462356498339436,
            -5.505245750967098e-06,
            -0.0021501321742277394,
            0.0007370561611724656,
            0.0017714252062095794,
            -0.001258738165046381,
            0.0008297024669073927,
            0.0028268578767116073,
            0.00383288983162983,
            -0.0002060931054317693,
            -0.00019132355420590087,
            0.0038132999271521303,
            0.0036871277751677166,
            -0.005651670621713024,
            0.0060041324528644765,
            -0.0019895183667667394,
            0.0012608699740360065,
            0.0009475072031172767,
            -0.0006648582106663352,
            -0.0032977706821086805,
            0.0016333157139193344,
            -9.411387647704147e-05,
            0.0007550850740385832,
            8.870151112911267e-05,
            0.001954175981325655,
            -0.001735805974768752,
            0.0026783139738801743,
            -0.001961847989345505,
            0.0
          ],
          [
            0.0,
            0.0009225338275348705,
            0.003052761818663475,
            -3.898124789317777e-06,
            0.0036904089256804182,
            0.0014255426474294721,
            -0.0003485807382240041,
            0.00236706213785152,
            0.001646162429164327,
            -1.9347754137231466e-05,
            0.001920345297294331,
            0.0041118594388029174,
            0.0030195637901558464,
            -0.0027855378101708265,
            0.001535412536766942,
            0.00556662762417208,
            -0.0004410657089580839,
            0.004021933032948598,
            -0.004114566363256619,
            -0.0020918336847585307,
            0.004335246152044371,
            -0.0010804248080351683,
            0.0011607511732185387,
            -0.0008122950660408777,
            0.0017972279901795163,
            0.000574489867575579,
            0.005169360913434832,
            -0.002695387923594852,
            -0.002464828627656278,
            0.00047516424597686174,
            0.004631468727550532,
            -0.00031887588282779084,
            -0.0005531535707623193,
            0.001246016582990228,
            -0.00016136086282290892,
            -0.002270534168999144,
            -7.987916717198615e-05,
            0.000872885985223504,
            -0.0018390019565718988,
            -0.0005397242179783741,
            0.0003919279925845428,
            0.0013353750616880854,
            -0.0027645149277550646,
            -0.0023674467619772873,
            0.0016029408937066427,
            0.0013260433508439917,
            -0.00821696015065636,
            0.00351210351009106,
            -0.004708099067746107,
            0.003591724547576296,
            0.004122636882777591,
            -0.0008916493597653783,
            -0.004277302948287979,
            0.0002292485466533278,
            -0.0014259438573038903,
            -0.0009640362599765073,
            -0.0016313660227180748,
            0.0009151812556807475,
            -0.0023827010248512206,
            0.0020111569875259708,
            -0.002620664906805027,
            0.0
          ],
          [
            0.0,
            0.0,
            0.0,
            0.0,
            0.0,
            0.0,
            0.0,
            0.0,
            0.0,
            0.0,
            0.0,
            0.0,
            0.0,
            0.0,
            0.0,
            0.0,
            0.0,
            0.0,
            0.0,
            0.0,
            0.0,
            0.0,
            0.0,
            0.0,
            0.0,
            0.0,
            0.0,
            0.0,
            0.0,
            0.0,
            0.0,
            0.0,
            0.0,
            0.0,
            0.0,
            0.0,
            0.0,
            0.0,
            0.0,
            0.0,
            0.0,
            0.0,
            0.0,
            0.0,
            0.0,
            0.0,
            0.0,
            0.0,
            0.0,
            0.0,
            0.0,
            0.0,
            0.0,
            0.0,
            0.0,
            0.0,
            0.0,
            0.0,
            0.0,
            0.0,
            0.0,
            0.0
          ]
        ],
        "standard_deviations": [
          [
            0.0,
            0.0,
            0.0,
            0.0,
            0.0,
            0.0,
            0.0,
